tree
version=v3
num_class=1
num_tree_per_iteration=1
label_index=0
max_feature_idx=0
objective=regression
feature_names=Column_0
feature_infos=[2.986726864086342:14.081370069911991]
tree_sizes=6263 6315 6248

Tree=0
num_leaves=72
num_cat=0
split_feature=0 0 0 0 0 0 0 0 0 0 0 0 0 0 0 0 0 0 0 0 0 0 0 0 0 0 0 0 0 0 0 0 0 0 0 0 0 0 0 0 0 0 0 0 0 0 0 0 0 0 0 0 0 0 0 0 0 0 0 0 0 0 0 0 0 0 0 0 0 0 0
split_gain=453.71 50.4318 44.7211 9.66364 6.9969 4.68982 4.66043 1.10758 1.01539 0.99588 0.809921 0.715262 0.553225 0.433846 0.208595 0.207268 0.171439 0.147429 0.139719 0.193877 0.097157 0.0971223 0.0921853 0.0714033 0.072591 0.0726202 0.0709605 0.0691862 0.066812 0.0662037 0.0628195 0.14087 0.0382322 0.0368074 0.0325329 0.0282348 0.027587 0.0272035 0.0256428 0.0248396 0.0207102 0.0193801 0.0193322 0.0186 0.0153901 0.0148904 0.0132389 0.0123107 0.0283332 0.0121595 0.0118518 0.0100737 0.00976201 0.00953314 0.00902956 0.011471 0.0081525 0.00672873 0.00662439 0.0111726 0.00627582 0.00595798 0.00538763 0.00435813 0.00341771 0.00258215 0.00247209 0.00191811 0.00121109 0.000575166 0.000247865
threshold=8.5083747361115769 7.4495007551266612 9.630236843992245 6.5643455922623568 10.582367517667754 8.1854164295945768 8.9494731328025292 5.6980369808818212 7.7649502886063191 10.050679814050854 11.443545808643069 7.0885418336787049 9.3765368161506757 8.7971835907586691 6.1277805866654029 4.8306517186187277 9.7986627093925485 6.786800180656158 10.280021912527728 10.12055498015064 9.7379971291511271 11.037990562538104 8.0028689975871412 9.2798771748754945 9.2123462552850537 9.1460286614360307 7.7005332005163867 9.4861842973824739 12.198001130803377 8.2545143294904957 7.1969119169969273 7.2965798471744217 6.3866357955024142 8.3103389949186752 9.5704946856234319 8.7318716846634015 10.738006023542503 8.1174164075064805 8.8600420157770667 7.512658248543179 10.440515768098997 10.356635082798915 6.6926790034378438 6.2950660162263556 10.200865581252165 11.202141102689881 10.915938198838409 6.8693058797145072 6.9501100746445266 9.0040402989154895 7.6370840206980093 11.644583130289428 7.8641261037504213 8.6192792022076237 9.919989153057541 9.9831545431074016 9.8606187242892638 6.4717950961020589 8.3865655747599455 8.4496063549791547 5.5202966355966394 5.9990115115463096 7.3847270249163293 7.0174581428422176 9.4291545092556834 5.8902612986383973 5.3032948980582599 7.5898820678652514 8.0639554445813122 7.9373017660664091 9.091252531191131
decision_type=2 2 2 2 2 2 2 2 2 2 2 2 2 2 2 2 2 2 2 2 2 2 2 2 2 2 2 2 2 2 2 2 2 2 2 2 2 2 2 2 2 2 2 2 2 2 2 2 2 2 2 2 2 2 2 2 2 2 2 2 2 2 2 2 2 2 2 2 2 2 2
left_child=1 3 6 7 9 8 13 15 26 16 21 17 23 35 61 -1 20 42 19 -11 -4 36 52 24 25 49 39 64 51 -7 -13 -32 43 -31 -29 53 -6 68 -15 -3 41 -20 -5 -16 -21 -23 -38 -19 -49 -8 67 -12 -10 -2 56 -56 -18 -34 -35 -60 66 65 -33 -50 -14 -9 -17 -41 -24 -54 -51
right_child=2 5 4 11 10 29 12 14 22 18 28 30 27 38 32 60 54 47 40 44 -22 45 37 -25 -26 -27 -28 34 -30 33 31 62 57 58 -36 -37 46 -39 -40 50 -42 -43 -44 -45 -46 -47 -48 48 63 70 -52 -53 69 -55 55 -57 -58 -59 59 -61 -62 -63 -64 -65 -66 -67 -68 -69 -70 -71 -72
leaf_value=0.46016142243159469 0.50553098710365507 0.48550659724539302 0.52482346715809791 0.47473865470582155 0.53416759849046636 0.49883296378026754 0.51543159972474561 0.46778234186396933 0.49117189226465802 0.53216964649504417 0.53980967241417233 0.48277561394137797 0.5177972519035976 0.50901438590193115 0.47065760387679095 0.46490196885181123 0.52633180122287448 0.47894833317442642 0.5318119734381429 0.52637308145919248 0.52117841258301023 0.53653639159772504 0.49439733490949078 0.51690831540114857 0.51247083275185135 0.51741925183759485 0.48947135236375189 0.52146809544030448 0.54334535545413021 0.50274434600604745 0.4786391859786911 0.48249391424342525 0.47226620694572885 0.50122680344782211 0.51926218815233682 0.50680779167958656 0.5361883902580612 0.49275731493064445 0.51088700727653391 0.48729092346600333 0.53229730302728873 0.52999185238682511 0.47621339921290406 0.46908280289682402 0.52799505182546125 0.53784716189598392 0.53484285904849027 0.47652416004827403 0.4788322191136245 0.51429564559190177 0.48635647020408418 0.54098338440846905 0.49202867376500914 0.50454217084102626 0.5253434024829815 0.52674370942006732 0.52751230487638012 0.47120721895974282 0.49969454688571519 0.50107652178466255 0.46429493271696226 0.46720314447166755 0.48160751963130277 0.47797995479408406 0.51856159703302807 0.46839598962056295 0.46550239604770671 0.48785633016172952 0.49485233386663574 0.49234223245338843 0.51410309999423243
leaf_weight=120 195 120 195 200 195 156 117 160 160 117 117 200 117 117 200 160 117 120 117 117 117 156 117 195 117 117 120 156 117 117 200 160 120 156 117 117 195 117 195 120 195 117 160 120 117 195 117 120 120 156 120 195 117 195 117 117 117 120 117 117 120 120 120 120 117 120 120 120 117 117 117
leaf_count=120 195 120 195 200 195 156 117 160 160 117 117 200 117 117 200 160 117 120 117 117 117 156 117 195 117 117 120 156 117 117 200 160 120 156 117 117 195 117 195 120 195 117 160 120 117 195 117 120 120 156 120 195 117 195 117 117 117 120 117 117 120 120 120 120 117 120 120 120 117 117 117
internal_value=0 -0.212664 0.213346 -0.294764 0.295502 -0.0900053 0.104302 -0.352281 -0.123936 0.250473 0.350082 -0.23876 0.140935 0.0449923 -0.332148 -0.389451 0.225207 -0.258277 0.27574 0.260943 0.20705 0.332343 -0.0992782 0.124864 0.119645 0.124826 -0.154553 0.166896 0.385559 -0.0211717 -0.21465 -0.220854 -0.31969 -0.0156287 0.177711 0.0269372 0.323491 -0.0874927 0.0743318 -0.15999 0.287846 0.281503 -0.273575 -0.326845 0.244325 0.34513 0.329322 -0.246804 -0.249728 0.118271 -0.155837 0.377916 -0.109777 0.0228498 0.237312 0.23292 0.241705 -0.310149 -0.0202956 -0.0236606 -0.378516 -0.349589 -0.206376 -0.243455 0.154278 -0.347063 -0.375923 -0.15178 -0.0812676 -0.105661 0.114615
internal_weight=0 5008 4992 3000 2847 2008 2145 1480 1345 1560 1287 1520 1326 819 960 520 780 840 780 351 312 858 745 819 624 507 600 507 429 663 680 480 560 507 273 507 507 351 312 480 429 234 360 320 234 351 312 480 360 390 360 312 394 390 468 234 234 240 390 234 400 400 280 240 234 280 280 240 234 234 273
internal_count=10000 5008 4992 3000 2847 2008 2145 1480 1345 1560 1287 1520 1326 819 960 520 780 840 780 351 312 858 745 819 624 507 600 507 429 663 680 480 560 507 273 507 507 351 312 480 429 234 360 320 234 351 312 480 360 390 360 312 394 390 468 234 234 240 390 234 400 400 280 240 234 280 280 240 234 234 273
shrinkage=1


Tree=1
num_leaves=71
num_cat=0
split_feature=0 0 0 0 0 0 0 0 0 0 0 0 0 0 0 0 0 0 0 0 0 0 0 0 0 0 0 0 0 0 0 0 0 0 0 0 0 0 0 0 0 0 0 0 0 0 0 0 0 0 0 0 0 0 0 0 0 0 0 0 0 0 0 0 0 0 0 0 0 0
split_gain=367.505 40.8498 36.2451 7.82755 5.01012 4.21685 3.79875 1.06247 0.897137 0.822468 0.656036 0.579362 0.400208 0.351415 0.168962 0.167887 0.121475 0.120754 0.117088 0.103426 0.15704 0.078669 0.0746701 0.0587987 0.0588224 0.057478 0.0569446 0.0541177 0.053625 0.0508838 0.114105 0.0309681 0.029814 0.0228701 0.0223454 0.0220348 0.0207707 0.0201201 0.0201175 0.0167753 0.0159027 0.0156979 0.015066 0.0138754 0.012466 0.0120612 0.0107235 0.0098492 0.00959993 0.00911914 0.014064 0.00815971 0.00772184 0.00545027 0.00536575 0.00904985 0.00508342 0.00490562 0.00436398 0.00363149 0.0126178 0.00929152 0.00307108 0.00883486 0.00231715 0.0020024 0.00155367 0.00124942 0.000980985 0.000200771
threshold=8.5083747361115769 7.4495007551266612 9.7834832187297227 6.5643455922623568 8.9494731328025292 10.582367517667754 8.1854164295945768 9.4524003685763542 5.6980369808818212 7.7649502886063191 11.443545808643069 7.0885418336787049 10.280021912527728 8.7971835907586691 6.1277805866654029 4.8306517186187277 9.2798771748754945 6.812712938652373 9.630236843992245 10.050679814050854 10.12055498015064 11.037990562538104 8.0028689975871412 9.2123462552850537 9.1460286614360307 7.7005332005163867 9.6940976492694801 12.198001130803377 8.2545143294904957 7.1969119169969273 7.2965798471744217 6.3866357955024142 8.3103389949186752 8.7318716846634015 10.738006023542503 8.1174164075064805 8.8600420157770667 7.512658248543179 6.6926790034378438 10.440515768098997 9.5259551238203404 10.356635082798915 6.2950660162263556 9.3357104588839643 10.200865581252165 11.202141102689881 10.915938198838409 9.0040402989154895 7.6370840206980093 7.834584659566544 7.9373017660664091 11.644583130289428 8.6192792022076237 6.4717950961020589 8.3865655747599455 8.4496063549791547 5.5202966355966394 5.9683575462893268 7.3847270249163293 9.919989153057541 9.8606187242892638 9.9831545431074016 6.9924464149095948 6.9170329575903038 9.3981067108581211 5.3032948980582599 7.5898820678652514 5.8406749049899975 8.0639554445813122 9.091252531191131
decision_type=2 2 2 2 2 2 2 2 2 2 2 2 2 2 2 2 2 2 2 2 2 2 2 2 2 2 2 2 2 2 2 2 2 2 2 2 2 2 2 2 2 2 2 2 2 2 2 2 2 2 2 2 2 2 2 2 2 2 2 2 2 2 2 2 2 2 2 2 2 2
left_child=1 3 4 8 13 12 9 16 15 25 21 17 19 33 57 -1 23 38 40 59 -21 34 49 24 47 37 -20 51 -8 -13 -31 42 -30 52 -7 68 -15 -3 -5 41 -9 -14 -16 -18 -22 -23 -36 -6 66 -11 -51 -12 -2 -33 -34 -56 65 67 -32 60 -4 -61 63 -19 -45 -17 -39 -10 -24 -49
right_child=2 6 5 11 7 10 28 18 14 22 27 29 39 36 31 56 43 62 26 20 44 45 35 -25 -26 -27 -28 -29 32 30 58 53 54 -35 46 -37 -38 48 -40 -41 -42 -43 -44 64 -46 -47 -48 69 -50 50 -52 -53 -54 -55 55 -57 -58 -59 -60 61 -62 -63 -64 -65 -66 -67 -68 -69 -70 -71
leaf_value=-0.038331157319868608 0.0025014509928699296 -0.015520499834140842 0.020910854013979987 -0.025211648171767593 0.011412001999779646 0.028274401187753453 -0.0035267702726392044 0.014928852037178914 -0.031405255664916087 -0.009153002959210425 0.033352266750338241 -0.017978384964568252 0.026154337638021947 0.0056365098294794058 -0.028884594098693924 -0.034064665809273718 0.013982596194260143 -0.022388547833324994 0.02011039282531581 0.026476244322342662 0.021259334940875237 0.030406313922214441 -0.007518836301970336 0.0087473117507612091 0.013200889224719861 -0.011952220178791322 0.017191942126523013 0.036534380912780766 -6.526069413138251e-06 -0.021701170334868947 -0.018231914335628971 -0.027436851280120512 -0.0013723143654762028 0.0036505748856112234 0.030093112740761197 -0.0089948541588253435 0.0073218690990828547 -0.013914606278607002 -0.023793287162203344 0.026591134214152896 0.016283446981165652 0.024516228541660197 -0.030301915059487025 0.012334161152506972 0.022719108975595897 0.031586007612924544 0.028882135657800567 0.010389643399200094 -0.014755614284561791 -0.010816821412429524 -0.0093684281887184105 0.034408608189760111 0.0016115162175041266 -0.028389940533476571 -0.0027513451258846934 -0.0015075676927231571 -0.034610997991015517 -0.031891934993909674 -0.019029669803179182 0.020332625000260007 0.022284635981897085 0.021592900517165791 -0.022451286211435217 -0.021253463117560992 0.012963521751400052 -0.033524280649920309 -0.013405740251376606 -0.03094892544982334 -0.0071093369613632433 0.010216352254208019
leaf_weight=120 195 120 156 200 117 195 156 156 120 120 117 200 117 117 200 160 117 160 117 117 117 156 117 117 117 120 156 117 117 200 160 120 156 117 195 117 195 120 200 195 195 117 120 117 117 195 117 156 120 157 117 195 195 120 117 117 120 160 120 117 117 117 160 120 117 120 120 120 117 117
leaf_count=120 195 120 156 200 117 195 156 156 120 120 117 200 117 117 200 160 117 160 117 117 117 156 117 117 117 120 156 117 117 200 160 120 156 117 195 117 195 120 200 195 195 117 120 117 117 195 117 156 120 157 117 195 195 120 117 117 120 160 120 117 117 117 160 120 117 120 120 120 117 117
internal_value=0 -0.191398 0.192011 -0.265287 0.104096 0.274598 -0.0810048 0.136673 -0.317053 -0.111542 0.315073 -0.214884 0.234123 0.0404931 -0.298933 -0.350506 0.116052 -0.23245 0.168895 0.221654 0.234849 0.299109 -0.0893504 0.10768 0.112343 -0.139097 0.184427 0.347003 -0.0190545 -0.193185 -0.198769 -0.287721 -0.0140658 0.0242435 0.291142 -0.0787434 0.0668986 -0.143991 -0.245025 0.259061 0.156814 0.253353 -0.294161 0.130934 0.219892 0.310617 0.29639 0.106444 -0.140253 -0.0987997 -0.101983 0.340125 0.0205648 -0.279134 -0.018266 -0.0212946 -0.340664 -0.31463 -0.185738 0.212518 0.214996 0.209628 -0.221018 -0.219021 0.126488 -0.338331 -0.136602 -0.311771 -0.0731409 0.103154
internal_weight=0 5008 4992 3000 2418 2574 2008 1599 1480 1345 1287 1520 1287 819 960 520 975 840 624 858 351 858 745 624 507 600 273 429 663 680 480 560 507 507 507 351 312 480 400 429 351 234 320 351 234 351 312 390 360 394 274 312 390 240 390 234 400 400 280 507 273 234 440 280 234 280 240 240 234 273
internal_count=10000 5008 4992 3000 2418 2574 2008 1599 1480 1345 1287 1520 1287 819 960 520 975 840 624 858 351 858 745 624 507 600 273 429 663 680 480 560 507 507 507 351 312 480 400 429 351 234 320 351 234 351 312 390 360 394 274 312 390 240 390 234 400 400 280 507 273 234 440 280 234 280 240 240 234 273
shrinkage=0.1


Tree=2
num_leaves=70
num_cat=0
split_feature=0 0 0 0 0 0 0 0 0 0 0 0 0 0 0 0 0 0 0 0 0 0 0 0 0 0 0 0 0 0 0 0 0 0 0 0 0 0 0 0 0 0 0 0 0 0 0 0 0 0 0 0 0 0 0 0 0 0 0 0 0 0 0 0 0 0 0 0 0
split_gain=297.681 32.1359 30.226 6.34032 4.59066 3.28287 2.87919 0.726681 0.666199 0.653397 0.531389 0.469283 0.370742 0.317213 0.136859 0.135988 0.114274 0.0978104 0.0950158 0.112763 0.0762625 0.0637219 0.0604828 0.0465572 0.0440932 0.0438353 0.0438262 0.0476269 0.0476461 0.0412159 0.0924246 0.0381338 0.0300654 0.0289755 0.0281803 0.0250841 0.0245718 0.0180998 0.0178482 0.0168242 0.0162972 0.0162952 0.0127441 0.0125812 0.0122034 0.0104957 0.0147855 0.0101437 0.0094946 0.00884114 0.00868608 0.00867602 0.00797785 0.00660936 0.00618632 0.00752615 0.00500621 0.00461517 0.00441472 0.00407726 0.00353482 0.00248757 0.00715624 0.00207046 0.00168012 0.000794597 0.000162623 0.000110382 5.57444e-05
threshold=8.4842050304311858 7.4495007551266612 9.630236843992245 6.5643455922623568 10.582367517667754 8.9494731328025292 8.1854164295945768 5.6980369808818212 7.7649502886063191 10.050679814050854 11.443545808643069 7.0885418336787049 9.3765368161506757 8.7971835907586691 6.1277805866654029 4.8306517186187277 9.7986627093925485 6.812712938652373 10.300177923601503 10.12055498015064 9.7379971291511271 11.037990562538104 8.0028689975871412 7.7005332005163867 9.4861842973824739 12.198001130803377 9.2798771748754945 9.2123462552850537 9.1460286614360307 7.1969119169969273 7.2965798471744217 8.2545143294904957 8.5696757711978311 8.3103389949186752 9.5704946856234319 6.3866357955024142 10.230511619129869 10.738006023542503 8.1174164075064805 8.8600420157770667 7.512658248543179 6.6926790034378438 11.284795567754609 11.160468675313423 6.2950660162263556 8.7318716846634015 8.6422725285271138 8.4326294811998093 10.440515768098997 7.8641261037504213 10.915938198838409 7.6034427991552116 9.0040402989154895 11.644583130289428 9.919989153057541 9.9831545431074016 9.8606187242892638 5.3785056446849877 6.4717950961020589 5.9990115115463096 7.3847270249163293 6.9924464149095948 6.9170329575903038 5.8902612986383973 9.4291545092556834 8.0639554445813122 9.091252531191131 7.9373017660664091 8.3696055851549307
decision_type=2 2 2 2 2 2 2 2 2 2 2 2 2 2 2 2 2 2 2 2 2 2 2 2 2 2 2 2 2 2 2 2 2 2 2 2 2 2 2 2 2 2 2 2 2 2 2 2 2 2 2 2 2 2 2 2 2 2 2 2 2 2 2 2 2 2 2 2 2
left_child=1 3 5 7 9 13 8 15 23 16 21 17 26 32 59 -1 20 41 19 -11 -4 37 49 40 64 53 27 28 52 -13 -31 -8 -2 -33 -26 44 -21 -6 65 -15 -3 -5 43 -23 -16 46 -34 68 -20 -10 -39 -42 -7 -12 56 -56 -18 -17 -37 63 -32 62 -19 -9 -14 -24 -54 -51 -35
right_child=2 6 4 11 10 12 31 14 22 18 25 29 24 39 35 57 54 61 48 36 -22 42 38 -25 34 -27 -28 -29 -30 30 60 33 45 47 -36 58 -38 50 -40 -41 51 -43 -44 -45 -46 -47 -48 -49 -50 67 -52 -53 66 -55 55 -57 -58 -59 -60 -61 -62 -63 -64 -65 -66 -67 -68 -69 -70
leaf_value=-0.034498041717646026 0.0008504747154895599 -0.01396844998234883 0.017970381633092006 -0.022690483389422297 0.025446960027210225 0.010270801735803104 -0.0031740929344848084 -0.028343212612671777 -0.0094648385264918047 0.023828618725140891 0.030017040819566479 -0.016180546419112943 0.012265715664093438 0.0050728590450544141 -0.02599613458150998 -0.030320129759609699 0.01913109832785578 -0.020149693053826925 0.022945205782755065 0.019296428116519031 0.014740975981585198 0.027648351926149596 -0.0067669523016472043 -0.010756998055924973 0.015284232892997516 0.03288094396742746 0.01140872397292883 0.0078725803281843726 0.011880800323700135 -0.019531053240178155 -0.016408722980704626 -5.8734007418537758e-06 0.0030032525909666576 -0.001491709068341929 0.013231186690525368 -0.024693166119977836 0.021213528886437419 0.027083802265234481 -0.0080953684993661373 0.0065896817655541383 -0.012073925005533967 -0.021413958578603343 0.027103378873668676 0.029114857478401604 -0.027271723196996996 0.0032855173425637508 0.0015161410250957722 -0.0025832866245888686 0.023932021464674904 -0.008568949045505949 0.025993921486740443 -0.013061878834036179 0.0093506789249938899 0.03096774797409009 0.018299362196340267 0.019433611223840307 0.020056173031847192 -0.030999479927733775 -0.025550946599493425 -0.028804413918460343 -0.017126702902217707 -0.02020615731686121 -0.019128116841117541 -0.027793720693637933 0.012801625538377576 -0.0063984031098472897 0.0091947173102734942 -0.0084315853639661039 -0.0013940926983506763
leaf_weight=120 156 120 195 200 195 117 156 160 160 117 117 200 117 117 200 200 117 160 195 156 117 117 117 120 156 117 195 117 117 200 160 117 117 117 117 120 117 195 117 195 160 200 117 117 120 117 156 117 195 117 117 200 156 195 117 117 117 200 120 120 120 160 120 120 117 117 117 117 117
leaf_count=120 156 120 195 200 195 117 156 160 160 117 117 200 117 117 200 200 117 160 195 156 117 117 117 120 156 117 195 117 117 200 160 117 117 117 117 120 117 195 117 195 160 200 117 117 120 117 156 117 195 117 117 200 156 195 117 117 117 200 120 120 120 160 120 120 117 117 117 117 117
internal_value=0 -0.173607 0.171468 -0.238759 0.239356 0.0829706 -0.0743419 -0.285348 -0.100388 0.202883 0.283566 -0.193396 0.114158 0.0347726 -0.26904 -0.315456 0.182418 -0.209205 0.223349 0.212312 0.167594 0.269198 -0.0804153 -0.125188 0.13541 0.312302 0.101001 0.0969121 0.101109 -0.173866 -0.178892 -0.0182008 0.0202377 -0.0136874 0.144044 -0.258949 0.20118 0.262027 -0.0708691 0.0602087 -0.129592 -0.220522 0.279555 0.283816 -0.264745 0.0249309 0.0215347 -0.0182303 0.234386 -0.0889197 0.266751 -0.126228 0.0957993 0.306112 0.192301 0.188665 0.195936 -0.306598 -0.251221 -0.283167 -0.167164 -0.198916 -0.197119 -0.281077 0.125337 -0.0658268 0.0928384 -0.0850027 -0.014429
internal_weight=0 4969 5031 3000 2847 2184 1969 1480 1345 1560 1287 1520 1326 858 960 520 780 840 780 390 312 858 745 600 507 429 819 624 507 680 480 624 546 468 273 560 273 507 351 312 480 400 351 234 320 390 273 351 390 394 312 360 390 312 468 234 234 400 240 400 280 440 280 280 234 234 273 234 234
internal_count=10000 4969 5031 3000 2847 2184 1969 1480 1345 1560 1287 1520 1326 858 960 520 780 840 780 390 312 858 745 600 507 429 819 624 507 680 480 624 546 468 273 560 273 507 351 312 480 400 351 234 320 390 273 351 390 394 312 360 390 312 468 234 234 400 240 400 280 440 280 280 234 234 273 234 234
shrinkage=0.1


end of trees

feature importances:
Column_0=210

parameters:
[boosting: gbdt]
[objective: regression]
[metric: l2]
[tree_learner: serial]
[device_type: cpu]
[data: ]
[valid: ]
[num_iterations: 100]
[learning_rate: 0.1]
[num_leaves: 127]
[num_threads: 12]
[max_depth: -1]
[min_data_in_leaf: 100]
[min_sum_hessian_in_leaf: 10]
[bagging_fraction: 1]
[pos_bagging_fraction: 1]
[neg_bagging_fraction: 1]
[bagging_freq: 0]
[bagging_seed: 3]
[feature_fraction: 1]
[feature_fraction_bynode: 1]
[feature_fraction_seed: 2]
[early_stopping_round: 0]
[first_metric_only: 0]
[max_delta_step: 0]
[lambda_l1: 0]
[lambda_l2: 0]
[min_gain_to_split: 0]
[drop_rate: 0.1]
[max_drop: 50]
[skip_drop: 0.5]
[xgboost_dart_mode: 0]
[uniform_drop: 0]
[drop_seed: 4]
[top_rate: 0.2]
[other_rate: 0.1]
[min_data_per_group: 100]
[max_cat_threshold: 32]
[cat_l2: 10]
[cat_smooth: 10]
[max_cat_to_onehot: 4]
[top_k: 20]
[monotone_constraints: ]
[feature_contri: ]
[forcedsplits_filename: ]
[forcedbins_filename: ]
[refit_decay_rate: 0.9]
[cegb_tradeoff: 1]
[cegb_penalty_split: 0]
[cegb_penalty_feature_lazy: ]
[cegb_penalty_feature_coupled: ]
[verbosity: 1]
[max_bin: 255]
[max_bin_by_feature: ]
[min_data_in_bin: 3]
[bin_construct_sample_cnt: 200000]
[histogram_pool_size: -1]
[data_random_seed: 1]
[output_model: LightGBM_model.txt]
[snapshot_freq: -1]
[input_model: ]
[output_result: LightGBM_predict_result.txt]
[initscore_filename: ]
[valid_data_initscores: ]
[pre_partition: 0]
[enable_bundle: 1]
[max_conflict_rate: 0]
[is_enable_sparse: 1]
[sparse_threshold: 0.8]
[use_missing: 1]
[zero_as_missing: 0]
[two_round: 0]
[save_binary: 0]
[header: 0]
[label_column: ]
[weight_column: ]
[group_column: ]
[ignore_column: ]
[categorical_feature: ]
[predict_raw_score: 0]
[predict_leaf_index: 0]
[predict_contrib: 0]
[num_iteration_predict: -1]
[pred_early_stop: 0]
[pred_early_stop_freq: 10]
[pred_early_stop_margin: 10]
[convert_model_language: ]
[convert_model: gbdt_prediction.cpp]
[num_class: 1]
[is_unbalance: 0]
[scale_pos_weight: 1]
[sigmoid: 1]
[boost_from_average: 1]
[reg_sqrt: 0]
[alpha: 0.9]
[fair_c: 1]
[poisson_max_delta_step: 0.7]
[tweedie_variance_power: 1.5]
[max_position: 20]
[lambdamart_norm: 1]
[label_gain: ]
[metric_freq: 1]
[is_provide_training_metric: 0]
[eval_at: ]
[multi_error_top_k: 1]
[num_machines: 1]
[local_listen_port: 12400]
[time_out: 120]
[machine_list_filename: ]
[machines: ]
[gpu_platform_id: -1]
[gpu_device_id: -1]
[gpu_use_dp: 0]

end of parameters
